=== Run information ===

Scheme:       weka.classifiers.trees.J48 -C 0.25 -M 2
Relation:     test features-weka.filters.unsupervised.attribute.Remove-R1
Instances:    200
Attributes:   29
              Area Method of Moments of MFCCs Overall Average
              Area Method of Moments of MFCCs Overall Standard Deviation
              Beat Sum Overall Average
              Beat Sum Overall Standard Deviation
              Compactness Overall Average
              Compactness Overall Standard Deviation
              Fraction Of Low Energy Windows Overall Average
              Fraction Of Low Energy Windows Overall Standard Deviation
              LPC Overall Average
              LPC Overall Standard Deviation
              Method of Moments Overall Average
              Method of Moments Overall Standard Deviation
              Root Mean Square Overall Average
              Root Mean Square Overall Standard Deviation
              Spectral Centroid Overall Average
              Spectral Centroid Overall Standard Deviation
              Spectral Flux Overall Average
              Spectral Flux Overall Standard Deviation
              Spectral Rolloff Point Overall Average
              Spectral Rolloff Point Overall Standard Deviation
              Spectral Variability Overall Average
              Spectral Variability Overall Standard Deviation
              Strength Of Strongest Beat Overall Average
              Strength Of Strongest Beat Overall Standard Deviation
              Strongest Beat Overall Average
              Strongest Beat Overall Standard Deviation
              Zero Crossings Overall Average
              Zero Crossings Overall Standard Deviation
              Label
Test mode:    10-fold cross-validation

=== Classifier model (full training set) ===

J48 pruned tree
------------------

Area Method of Moments of MFCCs Overall Average <= 23600000000000000
|   Area Method of Moments of MFCCs Overall Average <= 2760000000000000: B (50.0)
|   Area Method of Moments of MFCCs Overall Average > 2760000000000000: C (50.0)
Area Method of Moments of MFCCs Overall Average > 23600000000000000
|   Area Method of Moments of MFCCs Overall Average <= 85700000000000000: F (50.0)
|   Area Method of Moments of MFCCs Overall Average > 85700000000000000: L (50.0)

Number of Leaves  : 	4

Size of the tree : 	7


Time taken to build model: 0.02 seconds

=== Stratified cross-validation ===
=== Summary ===

Correctly Classified Instances         197               98.5    %
Incorrectly Classified Instances         3                1.5    %
Kappa statistic                          0.98  
Mean absolute error                      0.0075
Root mean squared error                  0.0866
Relative absolute error                  2      %
Root relative squared error             20      %
Total Number of Instances              200     

=== Detailed Accuracy By Class ===

                 TP Rate  FP Rate  Precision  Recall   F-Measure  MCC      ROC Area  PRC Area  Class
                 0.980    0.000    1.000      0.980    0.990      0.987    0.990     0.985     B
                 0.980    0.007    0.980      0.980    0.980      0.973    0.987     0.965     C
                 0.980    0.007    0.980      0.980    0.980      0.973    0.987     0.965     F
                 1.000    0.007    0.980      1.000    0.990      0.987    0.997     0.980     L
Weighted Avg.    0.985    0.005    0.985      0.985    0.985      0.980    0.990     0.974     

=== Confusion Matrix ===

  a  b  c  d   <-- classified as
 49  1  0  0 |  a = B
  0 49  1  0 |  b = C
  0  0 49  1 |  c = F
  0  0  0 50 |  d = L

